<?xml version="1.0"?>
<opencv_storage>
<cascade>
  <stageType>BOOST</stageType>
  <featureType>HAAR</featureType>
  <height>20</height>
  <width>20</width>
  <stageParams>
    <boostType>GAB</boostType>
    <minHitRate>9.9500000476837158e-01</minHitRate>
    <maxFalseAlarm>4.0000000596046448e-01</maxFalseAlarm>
    <weightTrimRate>9.4999999999999996e-01</weightTrimRate>
    <maxDepth>1</maxDepth>
    <maxWeakCount>100</maxWeakCount></stageParams>
  <featureParams>
    <maxCatCount>0</maxCatCount>
    <featSize>1</featSize>
    <mode>ALL</mode></featureParams>
  <stageNum>13</stageNum>
  <stages>
    <!-- stage 0 -->
    <_>
      <maxWeakCount>3</maxWeakCount>
      <stageThreshold>-1.2698911428451538e+00</stageThreshold>
      <weakClassifiers>
        <_>
          <internalNodes>
            0 -1 36 -6.3929088413715363e-02</internalNodes>
          <leafValues>
            9.0794980525970459e-01 -9.5647871494293213e-01</leafValues></_>
        <_>
          <internalNodes>
            0 -1 22 6.4312227070331573e-02</internalNodes>
          <leafValues>
            -9.4615870714187622e-01 7.1513563394546509e-01</leafValues></_>
        <_>
          <internalNodes>
            0 -1 54 1.9111867994070053e-02</internalNodes>
          <leafValues>
            -9.4800174236297607e-01 6.3274633884429932e-01</leafValues></_></weakClassifiers></_>
    <!-- stage 1 -->
    <_>
      <maxWeakCount>4</maxWeakCount>
      <stageThreshold>-1.9233112335205078e+00</stageThreshold>
      <weakClassifiers>
        <_>
          <internalNodes>
            0 -1 19 5.8463208377361298e-02</internalNodes>
          <leafValues>
            -9.1585129499435425e-01 8.1578946113586426e-01</leafValues></_>
        <_>
          <internalNodes>
            0 -1 64 -6.2229581177234650e-02</internalNodes>
          <leafValues>
            7.2057670354843140e-01 -7.8663623332977295e-01</leafValues></_>
        <_>
          <internalNodes>
            0 -1 29 6.8676513619720936e-03</internalNodes>
          <leafValues>
            -8.0102503299713135e-01 5.5949741601943970e-01</leafValues></_>
        <_>
          <internalNodes>
            0 -1 24 4.0978677570819855e-02</internalNodes>
          <leafValues>
            -7.8032118082046509e-01 6.0465520620346069e-01</leafValues></_></weakClassifiers></_>
    <!-- stage 2 -->
    <_>
      <maxWeakCount>3</maxWeakCount>
      <stageThreshold>-1.2190759181976318e+00</stageThreshold>
      <weakClassifiers>
        <_>
          <internalNodes>
            0 -1 66 -2.6874702423810959e-02</internalNodes>
          <leafValues>
            7.9629629850387573e-01 -8.9168280363082886e-01</leafValues></_>
        <_>
          <internalNodes>
            0 -1 26 2.0517069846391678e-02</internalNodes>
          <leafValues>
            -7.7370047569274902e-01 7.0684140920639038e-01</leafValues></_>
        <_>
          <internalNodes>
            0 -1 49 5.9634433127939701e-03</internalNodes>
          <leafValues>
            -8.2730364799499512e-01 4.4630736112594604e-01</leafValues></_></weakClassifiers></_>
    <!-- stage 3 -->
    <_>
      <maxWeakCount>5</maxWeakCount>
      <stageThreshold>-1.5539022684097290e+00</stageThreshold>
      <weakClassifiers>
        <_>
          <internalNodes>
            0 -1 32 3.2473869621753693e-02</internalNodes>
          <leafValues>
            -9.0030521154403687e-01 5.0561797618865967e-01</leafValues></_>
        <_>
          <internalNodes>
            0 -1 23 8.3866856992244720e-02</internalNodes>
          <leafValues>
            -8.4153521060943604e-01 4.2793467640876770e-01</leafValues></_>
        <_>
          <internalNodes>
            0 -1 6 9.6828550100326538e-02</internalNodes>
          <leafValues>
            -8.8996243476867676e-01 3.3470430970191956e-01</leafValues></_>
        <_>
          <internalNodes>
            0 -1 1 -9.7639992833137512e-02</internalNodes>
          <leafValues>
            6.2740856409072876e-01 -6.4290803670883179e-01</leafValues></_>
        <_>
          <internalNodes>
            0 -1 55 -4.3792813085019588e-03</internalNodes>
          <leafValues>
            5.6804579496383667e-01 -7.7417474985122681e-01</leafValues></_></weakClassifiers></_>
    <!-- stage 4 -->
    <_>
      <maxWeakCount>5</maxWeakCount>
      <stageThreshold>-1.3016633987426758e+00</stageThreshold>
      <weakClassifiers>
        <_>
          <internalNodes>
            0 -1 69 3.0486866831779480e-02</internalNodes>
          <leafValues>
            -8.7800002098083496e-01 5.1200002431869507e-01</leafValues></_>
        <_>
          <internalNodes>
            0 -1 42 -7.1048721671104431e-02</internalNodes>
          <leafValues>
            4.8678046464920044e-01 -7.9401779174804688e-01</leafValues></_>
        <_>
          <internalNodes>
            0 -1 46 8.6582209914922714e-03</internalNodes>
          <leafValues>
            -5.9789437055587769e-01 6.1881983280181885e-01</leafValues></_>
        <_>
          <internalNodes>
            0 -1 45 -1.7072468996047974e-02</internalNodes>
          <leafValues>
            5.8705061674118042e-01 -6.2915658950805664e-01</leafValues></_>
        <_>
          <internalNodes>
            0 -1 50 7.2662243619561195e-03</internalNodes>
          <leafValues>
            -8.1631350517272949e-01 3.8119810819625854e-01</leafValues></_></weakClassifiers></_>
    <!-- stage 5 -->
    <_>
      <maxWeakCount>6</maxWeakCount>
      <stageThreshold>-2.0587038993835449e+00</stageThreshold>
      <weakClassifiers>
        <_>
          <internalNodes>
            0 -1 60 4.7266200184822083e-02</internalNodes>
          <leafValues>
            -8.6786788702011108e-01 4.6613547205924988e-01</leafValues></_>
        <_>
          <internalNodes>
            0 -1 30 -6.8821549415588379e-02</internalNodes>
          <leafValues>
            4.6614807844161987e-01 -7.4172592163085938e-01</leafValues></_>
        <_>
          <internalNodes>
            0 -1 10 -4.4004283845424652e-02</internalNodes>
          <leafValues>
            4.4287922978401184e-01 -7.8785097599029541e-01</leafValues></_>
        <_>
          <internalNodes>
            0 -1 48 -1.3531166128814220e-02</internalNodes>
          <leafValues>
            3.6926481127738953e-01 -7.0937335491180420e-01</leafValues></_>
        <_>
          <internalNodes>
            0 -1 3 5.6501872837543488e-02</internalNodes>
          <leafValues>
            -9.4324862957000732e-01 3.5668507218360901e-01</leafValues></_>
        <_>
          <internalNodes>
            0 -1 0 -5.3259968757629395e-02</internalNodes>
          <leafValues>
            6.7627722024917603e-01 -5.1644480228424072e-01</leafValues></_></weakClassifiers></_>
    <!-- stage 6 -->
    <_>
      <maxWeakCount>3</maxWeakCount>
      <stageThreshold>-1.3117084503173828e+00</stageThreshold>
      <weakClassifiers>
        <_>
          <internalNodes>
            0 -1 35 -3.1738445162773132e-02</internalNodes>
          <leafValues>
            6.2385320663452148e-01 -8.5852712392807007e-01</leafValues></_>
        <_>
          <internalNodes>
            0 -1 57 -8.7647482752799988e-02</internalNodes>
          <leafValues>
            6.0727971792221069e-01 -7.9559576511383057e-01</leafValues></_>
        <_>
          <internalNodes>
            0 -1 27 1.3461707159876823e-02</internalNodes>
          <leafValues>
            -7.1492761373519897e-01 3.4241437911987305e-01</leafValues></_></weakClassifiers></_>
    <!-- stage 7 -->
    <_>
      <maxWeakCount>5</maxWeakCount>
      <stageThreshold>-1.2802499532699585e+00</stageThreshold>
      <weakClassifiers>
        <_>
          <internalNodes>
            0 -1 52 3.5244036465883255e-02</internalNodes>
          <leafValues>
            -8.2550334930419922e-01 5.3623187541961670e-01</leafValues></_>
        <_>
          <internalNodes>
            0 -1 34 3.0386401340365410e-02</internalNodes>
          <leafValues>
            -6.8234598636627197e-01 5.1510584354400635e-01</leafValues></_>
        <_>
          <internalNodes>
            0 -1 61 -4.6041547320783138e-03</internalNodes>
          <leafValues>
            3.5547494888305664e-01 -8.3512860536575317e-01</leafValues></_>
        <_>
          <internalNodes>
            0 -1 53 -1.2577047571539879e-02</internalNodes>
          <leafValues>
            7.0844507217407227e-01 -4.4169396162033081e-01</leafValues></_>
        <_>
          <internalNodes>
            0 -1 41 -3.0341189354658127e-02</internalNodes>
          <leafValues>
            4.0108844637870789e-01 -8.3632069826126099e-01</leafValues></_></weakClassifiers></_>
    <!-- stage 8 -->
    <_>
      <maxWeakCount>6</maxWeakCount>
      <stageThreshold>-1.2694724798202515e+00</stageThreshold>
      <weakClassifiers>
        <_>
          <internalNodes>
            0 -1 44 -1.5457450412213802e-02</internalNodes>
          <leafValues>
            7.1612900495529175e-01 -7.8630137443542480e-01</leafValues></_>
        <_>
          <internalNodes>
            0 -1 14 1.8999096751213074e-01</internalNodes>
          <leafValues>
            -7.1768218278884888e-01 3.7676915526390076e-01</leafValues></_>
        <_>
          <internalNodes>
            0 -1 62 -1.0586366057395935e-02</internalNodes>
          <leafValues>
            2.5902539491653442e-01 -9.0270042419433594e-01</leafValues></_>
        <_>
          <internalNodes>
            0 -1 33 5.2307702600955963e-02</internalNodes>
          <leafValues>
            -8.0645126104354858e-01 2.7763655781745911e-01</leafValues></_>
        <_>
          <internalNodes>
            0 -1 8 -5.3317975252866745e-02</internalNodes>
          <leafValues>
            6.1987966299057007e-01 -4.9668210744857788e-01</leafValues></_>
        <_>
          <internalNodes>
            0 -1 17 -3.8475409150123596e-02</internalNodes>
          <leafValues>
            3.1831467151641846e-01 -8.9992004632949829e-01</leafValues></_></weakClassifiers></_>
    <!-- stage 9 -->
    <_>
      <maxWeakCount>6</maxWeakCount>
      <stageThreshold>-1.1602659225463867e+00</stageThreshold>
      <weakClassifiers>
        <_>
          <internalNodes>
            0 -1 56 2.7366591617465019e-02</internalNodes>
          <leafValues>
            -8.0403459072113037e-01 4.1626793146133423e-01</leafValues></_>
        <_>
          <internalNodes>
            0 -1 67 4.1449487209320068e-02</internalNodes>
          <leafValues>
            -5.4113739728927612e-01 7.1550685167312622e-01</leafValues></_>
        <_>
          <internalNodes>
            0 -1 31 -6.6528424620628357e-02</internalNodes>
          <leafValues>
            5.7190012931823730e-01 -4.7409665584564209e-01</leafValues></_>
        <_>
          <internalNodes>
            0 -1 28 2.0055223256349564e-02</internalNodes>
          <leafValues>
            -9.4074738025665283e-01 2.9256230592727661e-01</leafValues></_>
        <_>
          <internalNodes>
            0 -1 13 -1.0651372373104095e-02</internalNodes>
          <leafValues>
            -8.5460680723190308e-01 2.2080150246620178e-01</leafValues></_>
        <_>
          <internalNodes>
            0 -1 7 1.2600637972354889e-02</internalNodes>
          <leafValues>
            -9.0035784244537354e-01 2.2099888324737549e-01</leafValues></_></weakClassifiers></_>
    <!-- stage 10 -->
    <_>
      <maxWeakCount>7</maxWeakCount>
      <stageThreshold>-1.3844029903411865e+00</stageThreshold>
      <weakClassifiers>
        <_>
          <internalNodes>
            0 -1 38 -4.9624785780906677e-02</internalNodes>
          <leafValues>
            3.7864077091217041e-01 -7.9310345649719238e-01</leafValues></_>
        <_>
          <internalNodes>
            0 -1 15 -2.8470002114772797e-02</internalNodes>
          <leafValues>
            5.7174408435821533e-01 -5.3836584091186523e-01</leafValues></_>
        <_>
          <internalNodes>
            0 -1 21 -6.5279677510261536e-03</internalNodes>
          <leafValues>
            3.6522915959358215e-01 -7.6412320137023926e-01</leafValues></_>
        <_>
          <internalNodes>
            0 -1 59 -3.3136311918497086e-02</internalNodes>
          <leafValues>
            3.4348374605178833e-01 -6.5580350160598755e-01</leafValues></_>
        <_>
          <internalNodes>
            0 -1 40 -1.4962870627641678e-02</internalNodes>
          <leafValues>
            7.8676295280456543e-01 -2.5916412472724915e-01</leafValues></_>
        <_>
          <internalNodes>
            0 -1 47 -3.3415588550269604e-03</internalNodes>
          <leafValues>
            2.4577470123767853e-01 -8.4904944896697998e-01</leafValues></_>
        <_>
          <internalNodes>
            0 -1 12 -4.2674575001001358e-02</internalNodes>
          <leafValues>
            3.8109514117240906e-01 -4.7041797637939453e-01</leafValues></_></weakClassifiers></_>
    <!-- stage 11 -->
    <_>
      <maxWeakCount>7</maxWeakCount>
      <stageThreshold>-1.3049892187118530e+00</stageThreshold>
      <weakClassifiers>
        <_>
          <internalNodes>
            0 -1 16 -3.3178076148033142e-02</internalNodes>
          <leafValues>
            1.9047619402408600e-01 -7.5961536169052124e-01</leafValues></_>
        <_>
          <internalNodes>
            0 -1 65 3.0169673264026642e-02</internalNodes>
          <leafValues>
            -6.4520895481109619e-01 3.1589138507843018e-01</leafValues></_>
        <_>
          <internalNodes>
            0 -1 25 3.6663956940174103e-02</internalNodes>
          <leafValues>
            -6.0387754440307617e-01 2.7690607309341431e-01</leafValues></_>
        <_>
          <internalNodes>
            0 -1 11 4.4082337990403175e-03</internalNodes>
          <leafValues>
            1.4672480523586273e-01 -9.3308484554290771e-01</leafValues></_>
        <_>
          <internalNodes>
            0 -1 4 -3.8295775651931763e-02</internalNodes>
          <leafValues>
            -6.8156617879867554e-01 2.1670837700366974e-01</leafValues></_>
        <_>
          <internalNodes>
            0 -1 39 -2.6134694926440716e-03</internalNodes>
          <leafValues>
            2.7648505568504333e-01 -5.9277576208114624e-01</leafValues></_>
        <_>
          <internalNodes>
            0 -1 37 4.5411116443574429e-03</internalNodes>
          <leafValues>
            1.7065761983394623e-01 -9.0882873535156250e-01</leafValues></_></weakClassifiers></_>
    <!-- stage 12 -->
    <_>
      <maxWeakCount>10</maxWeakCount>
      <stageThreshold>-1.3490089178085327e+00</stageThreshold>
      <weakClassifiers>
        <_>
          <internalNodes>
            0 -1 68 4.0264926850795746e-02</internalNodes>
          <leafValues>
            -7.5466144084930420e-01 8.2251079380512238e-02</leafValues></_>
        <_>
          <internalNodes>
            0 -1 58 1.1656848341226578e-01</internalNodes>
          <leafValues>
            -6.7175674438476563e-01 1.5360513329505920e-01</leafValues></_>
        <_>
          <internalNodes>
            0 -1 20 3.5886308178305626e-03</internalNodes>
          <leafValues>
            -6.1356675624847412e-01 2.1974290907382965e-01</leafValues></_>
        <_>
          <internalNodes>
            0 -1 63 4.6241884119808674e-03</internalNodes>
          <leafValues>
            2.4223971366882324e-01 -5.8716934919357300e-01</leafValues></_>
        <_>
          <internalNodes>
            0 -1 43 -3.3769011497497559e-02</internalNodes>
          <leafValues>
            -8.4782898426055908e-01 1.4337682723999023e-01</leafValues></_>
        <_>
          <internalNodes>
            0 -1 2 1.5209016203880310e-01</internalNodes>
          <leafValues>
            1.3885226845741272e-01 -7.8957456350326538e-01</leafValues></_>
        <_>
          <internalNodes>
            0 -1 5 1.4775620773434639e-02</internalNodes>
          <leafValues>
            1.2805527448654175e-01 -8.3054274320602417e-01</leafValues></_>
        <_>
          <internalNodes>
            0 -1 9 1.2582326307892799e-02</internalNodes>
          <leafValues>
            -2.4977433681488037e-01 5.5782896280288696e-01</leafValues></_>
        <_>
          <internalNodes>
            0 -1 51 -7.3628984391689301e-03</internalNodes>
          <leafValues>
            -6.6960573196411133e-01 1.9103170931339264e-01</leafValues></_>
        <_>
          <internalNodes>
            0 -1 18 1.4352812431752682e-03</internalNodes>
          <leafValues>
            -3.6668878793716431e-01 2.7551710605621338e-01</leafValues></_></weakClassifiers></_></stages>
  <features>
    <_>
      <rects>
        <_>
          0 2 6 11 -1.</_>
        <_>
          2 2 2 11 3.</_></rects>
      <tilted>0</tilted></_>
    <_>
      <rects>
        <_>
          0 4 9 8 -1.</_>
        <_>
          3 4 3 8 3.</_></rects>
      <tilted>0</tilted></_>
    <_>
      <rects>
        <_>
          0 4 13 16 -1.</_>
        <_>
          0 12 13 8 2.</_></rects>
      <tilted>0</tilted></_>
    <_>
      <rects>
        <_>
          0 5 13 10 -1.</_>
        <_>
          0 10 13 5 2.</_></rects>
      <tilted>0</tilted></_>
    <_>
      <rects>
        <_>
          0 5 18 6 -1.</_>
        <_>
          0 7 18 2 3.</_></rects>
      <tilted>0</tilted></_>
    <_>
      <rects>
        <_>
          0 6 3 12 -1.</_>
        <_>
          0 9 3 6 2.</_></rects>
      <tilted>0</tilted></_>
    <_>
      <rects>
        <_>
          0 6 16 8 -1.</_>
        <_>
          0 10 16 4 2.</_></rects>
      <tilted>0</tilted></_>
    <_>
      <rects>
        <_>
          0 9 11 4 -1.</_>
        <_>
          0 11 11 2 2.</_></rects>
      <tilted>0</tilted></_>
    <_>
      <rects>
        <_>
          1 0 17 6 -1.</_>
        <_>
          1 2 17 2 3.</_></rects>
      <tilted>0</tilted></_>
    <_>
      <rects>
        <_>
          1 1 14 2 -1.</_>
        <_>
          1 1 7 1 2.</_>
        <_>
          8 2 7 1 2.</_></rects>
      <tilted>0</tilted></_>
    <_>
      <rects>
        <_>
          1 3 9 5 -1.</_>
        <_>
          4 3 3 5 3.</_></rects>
      <tilted>0</tilted></_>
    <_>
      <rects>
        <_>
          1 5 4 6 -1.</_>
        <_>
          1 7 4 2 3.</_></rects>
      <tilted>0</tilted></_>
    <_>
      <rects>
        <_>
          1 7 6 6 -1.</_>
        <_>
          3 7 2 6 3.</_></rects>
      <tilted>0</tilted></_>
    <_>
      <rects>
        <_>
          2 4 2 9 -1.</_>
        <_>
          2 7 2 3 3.</_></rects>
      <tilted>0</tilted></_>
    <_>
      <rects>
        <_>
          2 4 16 12 -1.</_>
        <_>
          6 4 8 12 2.</_></rects>
      <tilted>0</tilted></_>
    <_>
      <rects>
        <_>
          2 16 11 4 -1.</_>
        <_>
          2 17 11 2 2.</_></rects>
      <tilted>0</tilted></_>
    <_>
      <rects>
        <_>
          3 0 15 2 -1.</_>
        <_>
          3 1 15 1 2.</_></rects>
      <tilted>0</tilted></_>
    <_>
      <rects>
        <_>
          3 4 10 14 -1.</_>
        <_>
          3 4 5 7 2.</_>
        <_>
          8 11 5 7 2.</_></rects>
      <tilted>0</tilted></_>
    <_>
      <rects>
        <_>
          3 4 16 2 -1.</_>
        <_>
          3 4 8 1 2.</_>
        <_>
          11 5 8 1 2.</_></rects>
      <tilted>0</tilted></_>
    <_>
      <rects>
        <_>
          3 7 8 6 -1.</_>
        <_>
          5 7 4 6 2.</_></rects>
      <tilted>0</tilted></_>
    <_>
      <rects>
        <_>
          4 1 5 2 -1.</_>
        <_>
          4 1 5 1 2.</_></rects>
      <tilted>1</tilted></_>
    <_>
      <rects>
        <_>
          4 2 6 4 -1.</_>
        <_>
          6 2 2 4 3.</_></rects>
      <tilted>0</tilted></_>
    <_>
      <rects>
        <_>
          4 3 12 7 -1.</_>
        <_>
          7 3 6 7 2.</_></rects>
      <tilted>0</tilted></_>
    <_>
      <rects>
        <_>
          4 3 12 5 -1.</_>
        <_>
          8 3 4 5 3.</_></rects>
      <tilted>0</tilted></_>
    <_>
      <rects>
        <_>
          4 6 4 8 -1.</_>
        <_>
          4 10 4 4 2.</_></rects>
      <tilted>0</tilted></_>
    <_>
      <rects>
        <_>
          4 9 6 4 -1.</_>
        <_>
          6 9 2 4 3.</_></rects>
      <tilted>0</tilted></_>
    <_>
      <rects>
        <_>
          4 10 6 2 -1.</_>
        <_>
          6 10 2 2 3.</_></rects>
      <tilted>0</tilted></_>
    <_>
      <rects>
        <_>
          5 0 4 10 -1.</_>
        <_>
          5 0 2 5 2.</_>
        <_>
          7 5 2 5 2.</_></rects>
      <tilted>0</tilted></_>
    <_>
      <rects>
        <_>
          5 0 6 17 -1.</_>
        <_>
          7 0 2 17 3.</_></rects>
      <tilted>0</tilted></_>
    <_>
      <rects>
        <_>
          5 7 2 7 -1.</_>
        <_>
          6 7 1 7 2.</_></rects>
      <tilted>0</tilted></_>
    <_>
      <rects>
        <_>
          5 13 8 6 -1.</_>
        <_>
          5 16 8 3 2.</_></rects>
      <tilted>0</tilted></_>
    <_>
      <rects>
        <_>
          5 14 14 4 -1.</_>
        <_>
          5 16 14 2 2.</_></rects>
      <tilted>0</tilted></_>
    <_>
      <rects>
        <_>
          6 4 1 16 -1.</_>
        <_>
          6 8 1 8 2.</_></rects>
      <tilted>0</tilted></_>
    <_>
      <rects>
        <_>
          6 4 9 8 -1.</_>
        <_>
          6 8 9 4 2.</_></rects>
      <tilted>0</tilted></_>
    <_>
      <rects>
        <_>
          6 9 4 3 -1.</_>
        <_>
          7 10 2 3 2.</_></rects>
      <tilted>1</tilted></_>
    <_>
      <rects>
        <_>
          7 2 4 8 -1.</_>
        <_>
          7 2 2 4 2.</_>
        <_>
          9 6 2 4 2.</_></rects>
      <tilted>0</tilted></_>
    <_>
      <rects>
        <_>
          7 5 4 5 -1.</_>
        <_>
          7 5 2 5 2.</_></rects>
      <tilted>1</tilted></_>
    <_>
      <rects>
        <_>
          7 5 6 4 -1.</_>
        <_>
          7 5 6 2 2.</_></rects>
      <tilted>1</tilted></_>
    <_>
      <rects>
        <_>
          7 7 6 4 -1.</_>
        <_>
          9 7 2 4 3.</_></rects>
      <tilted>0</tilted></_>
    <_>
      <rects>
        <_>
          7 7 9 4 -1.</_>
        <_>
          7 8 9 2 2.</_></rects>
      <tilted>0</tilted></_>
    <_>
      <rects>
        <_>
          8 0 7 3 -1.</_>
        <_>
          8 1 7 1 3.</_></rects>
      <tilted>0</tilted></_>
    <_>
      <rects>
        <_>
          8 2 8 7 -1.</_>
        <_>
          12 2 4 7 2.</_></rects>
      <tilted>0</tilted></_>
    <_>
      <rects>
        <_>
          8 3 4 6 -1.</_>
        <_>
          8 3 2 6 2.</_></rects>
      <tilted>1</tilted></_>
    <_>
      <rects>
        <_>
          8 4 6 9 -1.</_>
        <_>
          8 7 6 3 3.</_></rects>
      <tilted>0</tilted></_>
    <_>
      <rects>
        <_>
          8 6 4 3 -1.</_>
        <_>
          9 6 2 3 2.</_></rects>
      <tilted>0</tilted></_>
    <_>
      <rects>
        <_>
          8 8 2 6 -1.</_>
        <_>
          8 8 1 6 2.</_></rects>
      <tilted>1</tilted></_>
    <_>
      <rects>
        <_>
          10 1 2 10 -1.</_>
        <_>
          10 1 1 5 2.</_>
        <_>
          11 6 1 5 2.</_></rects>
      <tilted>0</tilted></_>
    <_>
      <rects>
        <_>
          10 1 8 4 -1.</_>
        <_>
          12 1 4 4 2.</_></rects>
      <tilted>0</tilted></_>
    <_>
      <rects>
        <_>
          10 4 9 2 -1.</_>
        <_>
          13 4 3 2 3.</_></rects>
      <tilted>0</tilted></_>
    <_>
      <rects>
        <_>
          10 9 4 3 -1.</_>
        <_>
          12 9 2 3 2.</_></rects>
      <tilted>0</tilted></_>
    <_>
      <rects>
        <_>
          10 9 7 4 -1.</_>
        <_>
          10 11 7 2 2.</_></rects>
      <tilted>0</tilted></_>
    <_>
      <rects>
        <_>
          11 0 6 3 -1.</_>
        <_>
          13 0 2 3 3.</_></rects>
      <tilted>0</tilted></_>
    <_>
      <rects>
        <_>
          11 4 4 8 -1.</_>
        <_>
          11 4 2 4 2.</_>
        <_>
          13 8 2 4 2.</_></rects>
      <tilted>0</tilted></_>
    <_>
      <rects>
        <_>
          11 16 7 3 -1.</_>
        <_>
          11 17 7 1 3.</_></rects>
      <tilted>0</tilted></_>
    <_>
      <rects>
        <_>
          12 4 3 8 -1.</_>
        <_>
          12 8 3 4 2.</_></rects>
      <tilted>0</tilted></_>
    <_>
      <rects>
        <_>
          13 0 2 11 -1.</_>
        <_>
          14 0 1 11 2.</_></rects>
      <tilted>0</tilted></_>
    <_>
      <rects>
        <_>
          13 4 4 3 -1.</_>
        <_>
          12 5 4 1 3.</_></rects>
      <tilted>1</tilted></_>
    <_>
      <rects>
        <_>
          14 1 5 6 -1.</_>
        <_>
          14 1 5 3 2.</_></rects>
      <tilted>1</tilted></_>
    <_>
      <rects>
        <_>
          14 1 5 12 -1.</_>
        <_>
          11 4 5 6 2.</_></rects>
      <tilted>1</tilted></_>
    <_>
      <rects>
        <_>
          14 2 5 12 -1.</_>
        <_>
          14 5 5 6 2.</_></rects>
      <tilted>0</tilted></_>
    <_>
      <rects>
        <_>
          14 6 5 4 -1.</_>
        <_>
          13 7 5 2 2.</_></rects>
      <tilted>1</tilted></_>
    <_>
      <rects>
        <_>
          14 11 1 6 -1.</_>
        <_>
          14 14 1 3 2.</_></rects>
      <tilted>0</tilted></_>
    <_>
      <rects>
        <_>
          15 4 4 6 -1.</_>
        <_>
          15 4 2 6 2.</_></rects>
      <tilted>1</tilted></_>
    <_>
      <rects>
        <_>
          15 5 4 8 -1.</_>
        <_>
          15 5 2 8 2.</_></rects>
      <tilted>1</tilted></_>
    <_>
      <rects>
        <_>
          15 5 4 4 -1.</_>
        <_>
          15 5 4 2 2.</_></rects>
      <tilted>1</tilted></_>
    <_>
      <rects>
        <_>
          15 7 3 4 -1.</_>
        <_>
          14 8 3 2 2.</_></rects>
      <tilted>1</tilted></_>
    <_>
      <rects>
        <_>
          15 8 5 2 -1.</_>
        <_>
          15 8 5 1 2.</_></rects>
      <tilted>1</tilted></_>
    <_>
      <rects>
        <_>
          15 9 5 3 -1.</_>
        <_>
          14 10 5 1 3.</_></rects>
      <tilted>1</tilted></_>
    <_>
      <rects>
        <_>
          16 9 4 3 -1.</_>
        <_>
          15 10 4 1 3.</_></rects>
      <tilted>1</tilted></_>
    <_>
      <rects>
        <_>
          18 9 1 8 -1.</_>
        <_>
          16 11 1 4 2.</_></rects>
      <tilted>1</tilted></_></features></cascade>
</opencv_storage>
