<?xml version="1.0"?>
<opencv_storage>
<cascade>
  <stageType>BOOST</stageType>
  <featureType>LBP</featureType>
  <height>20</height>
  <width>20</width>
  <stageParams>
    <boostType>GAB</boostType>
    <minHitRate>9.9500000476837158e-01</minHitRate>
    <maxFalseAlarm>4.0000000596046448e-01</maxFalseAlarm>
    <weightTrimRate>9.4999999999999996e-01</weightTrimRate>
    <maxDepth>1</maxDepth>
    <maxWeakCount>100</maxWeakCount></stageParams>
  <featureParams>
    <maxCatCount>256</maxCatCount>
    <featSize>1</featSize></featureParams>
  <stageNum>16</stageNum>
  <stages>
    <!-- stage 0 -->
    <_>
      <maxWeakCount>3</maxWeakCount>
      <stageThreshold>-8.8780164718627930e-01</stageThreshold>
      <weakClassifiers>
        <_>
          <internalNodes>
            0 -1 22 -269488209 267382703 -1 -2065 1602212063 266321791
            2147483647 -1</internalNodes>
          <leafValues>
            -8.4538376331329346e-01 9.2450881004333496e-01</leafValues></_>
        <_>
          <internalNodes>
            0 -1 83 -146286841 501204295 -1856941309 -77597745
            1648572679 185323523 -112203217 -1057</internalNodes>
          <leafValues>
            -8.3774924278259277e-01 8.5812413692474365e-01</leafValues></_>
        <_>
          <internalNodes>
            0 -1 93 -85660530 1425014783 -1882396600 -1 2130705896
            -50987034 -35651622 -257</internalNodes>
          <leafValues>
            -7.3157906532287598e-01 7.9533135890960693e-01</leafValues></_></weakClassifiers></_>
    <!-- stage 1 -->
    <_>
      <maxWeakCount>4</maxWeakCount>
      <stageThreshold>-1.5580645799636841e+00</stageThreshold>
      <weakClassifiers>
        <_>
          <internalNodes>
            0 -1 44 -36205910 -2894395 45023266 -103824465 -74716945
            -544239430 -68423697 -2110481</internalNodes>
          <leafValues>
            -8.3630770444869995e-01 7.7218794822692871e-01</leafValues></_>
        <_>
          <internalNodes>
            0 -1 35 -342890581 -351812671 -1861642873 -35959905
            -397678081 1273135306 -343278849 -1058049</internalNodes>
          <leafValues>
            -7.4735403060913086e-01 7.3434388637542725e-01</leafValues></_>
        <_>
          <internalNodes>
            0 -1 82 -100800292 269471759 -681978985 -608968529
            -1177691283 482934825 -768869393 -1315905</internalNodes>
          <leafValues>
            -7.4679177999496460e-01 6.1557418107986450e-01</leafValues></_>
        <_>
          <internalNodes>
            0 -1 8 -806360473 -286298129 1862222370 -520106257
            2138522949 -1073774721 1996428372 -2049</internalNodes>
          <leafValues>
            -6.0032457113265991e-01 7.7238893508911133e-01</leafValues></_></weakClassifiers></_>
    <!-- stage 2 -->
    <_>
      <maxWeakCount>4</maxWeakCount>
      <stageThreshold>-1.5990220308303833e+00</stageThreshold>
      <weakClassifiers>
        <_>
          <internalNodes>
            0 -1 59 -126225188 285414177 -796409379 -15216357 -83109635
            -1968566133 -1207051281 -4217921</internalNodes>
          <leafValues>
            -8.0475592613220215e-01 7.2820991277694702e-01</leafValues></_>
        <_>
          <internalNodes>
            0 -1 16 -689700873 -674629131 -1789799533 -720129485
            -376579329 -376722814 -75377477 95414247</internalNodes>
          <leafValues>
            -7.4935722351074219e-01 6.9781446456909180e-01</leafValues></_>
        <_>
          <internalNodes>
            0 -1 102 -270536946 1373065431 -937507602 -205926177
            -605629681 2032699584 -96933201 -69211909</internalNodes>
          <leafValues>
            -7.8976249694824219e-01 5.9381067752838135e-01</leafValues></_>
        <_>
          <internalNodes>
            0 -1 36 -880693846 -945634108 -187043182 -6293295 -624920085
            1862305969 -87444481 -595205</internalNodes>
          <leafValues>
            -7.8811222314834595e-01 5.2950692176818848e-01</leafValues></_></weakClassifiers></_>
    <!-- stage 3 -->
    <_>
      <maxWeakCount>4</maxWeakCount>
      <stageThreshold>-1.6076046228408813e+00</stageThreshold>
      <weakClassifiers>
        <_>
          <internalNodes>
            0 -1 34 -168952372 -573979735 -243994161 -181305331
            -373752657 -107421554 -1448543505 -909317236</internalNodes>
          <leafValues>
            -7.7221858501434326e-01 6.5115225315093994e-01</leafValues></_>
        <_>
          <internalNodes>
            0 -1 9 -860162 -35973793 -107454369 -607191017 1087640801
            -3178227 -72619857 -71335253</internalNodes>
          <leafValues>
            -7.3628497123718262e-01 6.0454517602920532e-01</leafValues></_>
        <_>
          <internalNodes>
            0 -1 103 -119550450 -103186233 -1801848322 -1818766909
            -117228721 1912635546 -221517570 -6358805</internalNodes>
          <leafValues>
            -7.9870158433914185e-01 4.8691761493682861e-01</leafValues></_>
        <_>
          <internalNodes>
            0 -1 37 -443812182 -1568517926 -1071953766 -36400742
            1893730859 404783168 -1307983125 -72621937</internalNodes>
          <leafValues>
            -7.2377038002014160e-01 5.6860047578811646e-01</leafValues></_></weakClassifiers></_>
    <!-- stage 4 -->
    <_>
      <maxWeakCount>5</maxWeakCount>
      <stageThreshold>-9.1428655385971069e-01</stageThreshold>
      <weakClassifiers>
        <_>
          <internalNodes>
            0 -1 28 -7344146 -808599125 -642321129 -6434593 -278660353
            231465721 -1173817863 -263681</internalNodes>
          <leafValues>
            -7.1376371383666992e-01 6.8899524211883545e-01</leafValues></_>
        <_>
          <internalNodes>
            0 -1 55 -2804933 -674122465 500241215 -182601249 -884695043
            -376647335 -86889809 -1073763425</internalNodes>
          <leafValues>
            -7.1383297443389893e-01 6.0397422313690186e-01</leafValues></_>
        <_>
          <internalNodes>
            0 -1 50 497057789 2147384825 -268566657 -10539089 1073541115
            -720924 -1074520067 -1449130840</internalNodes>
          <leafValues>
            -5.6514817476272583e-01 6.7902594804763794e-01</leafValues></_>
        <_>
          <internalNodes>
            0 -1 88 1949821770 -572927077 -377392677 -25434497
            -607934194 1846557467 -995099570 1886912267</internalNodes>
          <leafValues>
            -7.9086399078369141e-01 4.7564628720283508e-01</leafValues></_>
        <_>
          <internalNodes>
            0 -1 7 -17 -286262033 -1090523610 -491848146 2147477063
            620748791 -268982496 -977541393</internalNodes>
          <leafValues>
            -5.7976216077804565e-01 6.2514817714691162e-01</leafValues></_></weakClassifiers></_>
    <!-- stage 5 -->
    <_>
      <maxWeakCount>5</maxWeakCount>
      <stageThreshold>-8.0415409803390503e-01</stageThreshold>
      <weakClassifiers>
        <_>
          <internalNodes>
            0 -1 67 1979056127 -134348801 1971159039 -2098469 1972427503
            -34213889 -131073 -265729</internalNodes>
          <leafValues>
            -5.5522537231445313e-01 8.1085813045501709e-01</leafValues></_>
        <_>
          <internalNodes>
            0 -1 112 -115 -1919369433 -16924754 -1346535425 -33686060
            215875580 -302711304 -1073741825</internalNodes>
          <leafValues>
            -5.7987374067306519e-01 6.1608988046646118e-01</leafValues></_>
        <_>
          <internalNodes>
            0 -1 26 -437914921 -271724229 -854491049 -539785 -1162674945
            -340160805 -338363665 1206382591</internalNodes>
          <leafValues>
            -6.3552248477935791e-01 5.2327585220336914e-01</leafValues></_>
        <_>
          <internalNodes>
            0 -1 33 -1286023707 -36863259 -1235783185 -37780147
            -878122079 -71597896 -1425298705 -408107508</internalNodes>
          <leafValues>
            -5.8439481258392334e-01 5.2603065967559814e-01</leafValues></_>
        <_>
          <internalNodes>
            0 -1 11 -288686097 -433921634 -837779262 -53257773
            1799418627 1463814339 1661401705 -17958513</internalNodes>
          <leafValues>
            -7.0365720987319946e-01 4.4043689966201782e-01</leafValues></_></weakClassifiers></_>
    <!-- stage 6 -->
    <_>
      <maxWeakCount>5</maxWeakCount>
      <stageThreshold>-8.1192386150360107e-01</stageThreshold>
      <weakClassifiers>
        <_>
          <internalNodes>
            0 -1 106 -177 -1 -16777217 -1 -4210865 1501560703 -1 -1</internalNodes>
          <leafValues>
            -6.1904764175415039e-01 6.9105690717697144e-01</leafValues></_>
        <_>
          <internalNodes>
            0 -1 56 -609228118 -403969654 298971537 -48761957 -645791763
            -74608470 -248125473 -268437793</internalNodes>
          <leafValues>
            -6.0486781597137451e-01 6.2858992815017700e-01</leafValues></_>
        <_>
          <internalNodes>
            0 -1 58 -8437957 1071330687 -1091535493 -16944417
            -1143145601 1799213151 949676795 -1107558417</internalNodes>
          <leafValues>
            -6.9893515110015869e-01 4.9767565727233887e-01</leafValues></_>
        <_>
          <internalNodes>
            0 -1 10 -3146769 -1395406633 -662171008 -892349301
            -208674270 -1609340728 -673225948 -3073</internalNodes>
          <leafValues>
            -5.8626991510391235e-01 5.8047097921371460e-01</leafValues></_>
        <_>
          <internalNodes>
            0 -1 63 -681978889 -679928869 -603647137 -34041424
            -748823556 -242691764 1233128191 1035480012</internalNodes>
          <leafValues>
            -6.5732324123382568e-01 5.3045582771301270e-01</leafValues></_></weakClassifiers></_>
    <!-- stage 7 -->
    <_>
      <maxWeakCount>7</maxWeakCount>
      <stageThreshold>-9.6466171741485596e-01</stageThreshold>
      <weakClassifiers>
        <_>
          <internalNodes>
            0 -1 23 -17 -6225922 -130 -67305477 -10002609 2137096055
            -1073750017 -32865</internalNodes>
          <leafValues>
            -6.1006289720535278e-01 6.7322236299514771e-01</leafValues></_>
        <_>
          <internalNodes>
            0 -1 91 -69210225 -70124065 -774812705 -740429313 -392170738
            2075041852 -67515761 -17047301</internalNodes>
          <leafValues>
            -5.9001272916793823e-01 5.9418934583663940e-01</leafValues></_>
        <_>
          <internalNodes>
            0 -1 4 -24641598 -144716834 -251537889 -136316256 -36705025
            -1156586609 -7619841 1744270327</internalNodes>
          <leafValues>
            -6.2766528129577637e-01 4.9266323447227478e-01</leafValues></_>
        <_>
          <internalNodes>
            0 -1 66 -504892509 -876156796 -640309927 -684228192 -8222021
            -870997535 1535292923 -994051410</internalNodes>
          <leafValues>
            -5.3811103105545044e-01 5.4689091444015503e-01</leafValues></_>
        <_>
          <internalNodes>
            0 -1 27 -573068387 -783430315 956409279 -587145775
            -654298915 -698833721 -267277005 1036000542</internalNodes>
          <leafValues>
            -5.9198784828186035e-01 5.3156208992004395e-01</leafValues></_>
        <_>
          <internalNodes>
            0 -1 47 -549065310 -269712573 -251643230 -812843 -40244581
            1451792607 -661550929 -2391381</internalNodes>
          <leafValues>
            -6.0185945034027100e-01 4.7228318452835083e-01</leafValues></_>
        <_>
          <internalNodes>
            0 -1 52 425227720 1805586585 285577855 2131874237 453827067
            -201842486 -627962899 984094748</internalNodes>
          <leafValues>
            -6.8765705823898315e-01 4.1961681842803955e-01</leafValues></_></weakClassifiers></_>
    <!-- stage 8 -->
    <_>
      <maxWeakCount>7</maxWeakCount>
      <stageThreshold>-8.9671272039413452e-01</stageThreshold>
      <weakClassifiers>
        <_>
          <internalNodes>
            0 -1 76 -1575645 -68206609 -44783 -5 1030714679 -32769
            1400862071 -4196357</internalNodes>
          <leafValues>
            -5.8600914478302002e-01 6.4889335632324219e-01</leafValues></_>
        <_>
          <internalNodes>
            0 -1 21 -1353011201 -103427627 -1953122817 -1621231787
            86064115 -666334806 -7808133 -6235957</internalNodes>
          <leafValues>
            -5.9597033262252808e-01 5.2587783336639404e-01</leafValues></_>
        <_>
          <internalNodes>
            0 -1 120 -1048881 686554863 -1368392158 -1431376150
            -67113657 824180543 -76022009 -136843333</internalNodes>
          <leafValues>
            -4.6663701534271240e-01 6.2401330471038818e-01</leafValues></_>
        <_>
          <internalNodes>
            0 -1 3 -1904180776 -141504296 1367602173 -1076149808
            -1685746951 -74737448 -1430717441 -40537692</internalNodes>
          <leafValues>
            -5.0575381517410278e-01 5.7277697324752808e-01</leafValues></_>
        <_>
          <internalNodes>
            0 -1 74 -492642304 -276768621 268538067 -1791508977
            -842477304 -624174915 -511444181 -823136472</internalNodes>
          <leafValues>
            -7.1664172410964966e-01 3.7872880697250366e-01</leafValues></_>
        <_>
          <internalNodes>
            0 -1 48 -270009942 -2050326202 -1073512064 -7515944
            1910741134 175161472 -645729599 -874540577</internalNodes>
          <leafValues>
            -6.3703376054763794e-01 4.2683941125869751e-01</leafValues></_>
        <_>
          <internalNodes>
            0 -1 40 356524350 -111934244 1360024221 -49020449 718696635
            -231206825 1328389055 1065877524</internalNodes>
          <leafValues>
            -6.2644141912460327e-01 4.6021047234535217e-01</leafValues></_></weakClassifiers></_>
    <!-- stage 9 -->
    <_>
      <maxWeakCount>7</maxWeakCount>
      <stageThreshold>-9.8455041646957397e-01</stageThreshold>
      <weakClassifiers>
        <_>
          <internalNodes>
            0 -1 100 -235405345 -1 -67108865 -1 -167772161 -1 -226493445
            1895825247</internalNodes>
          <leafValues>
            -5.6604832410812378e-01 6.5284180641174316e-01</leafValues></_>
        <_>
          <internalNodes>
            0 -1 46 -1086324805 -183381949 -654184127 -609914623
            822464939 -1291730807 2023258761 2145546897</internalNodes>
          <leafValues>
            -6.2461590766906738e-01 4.7830119729042053e-01</leafValues></_>
        <_>
          <internalNodes>
            0 -1 99 -295964978 -218924801 -1875708200 -229588453
            -625284516 1351129234 -473175042 -270796645</internalNodes>
          <leafValues>
            -6.7579191923141479e-01 4.3624290823936462e-01</leafValues></_>
        <_>
          <internalNodes>
            0 -1 75 -206323565 -5245057 833827065 1941959675 -134249761
            -4194305 1475857387 -672157478</internalNodes>
          <leafValues>
            -4.6856296062469482e-01 5.5153208971023560e-01</leafValues></_>
        <_>
          <internalNodes>
            0 -1 42 823145908 -14957952 -1795010177 -1155726835
            1361229857 -6225775 1577728829 -1396954840</internalNodes>
          <leafValues>
            -6.1895662546157837e-01 4.0856367349624634e-01</leafValues></_>
        <_>
          <internalNodes>
            0 -1 122 -706744899 84509312 -1857924448 227463436
            -257761628 538560654 864183168 -19927809</internalNodes>
          <leafValues>
            -5.2362287044525146e-01 4.9849620461463928e-01</leafValues></_>
        <_>
          <internalNodes>
            0 -1 86 -2016152577 1426114800 -1845489164 1431883920
            -1197358912 1267786144 -383655682 -1144255558</internalNodes>
          <leafValues>
            -5.7668626308441162e-01 4.1738134622573853e-01</leafValues></_></weakClassifiers></_>
    <!-- stage 10 -->
    <_>
      <maxWeakCount>8</maxWeakCount>
      <stageThreshold>-8.7916570901870728e-01</stageThreshold>
      <weakClassifiers>
        <_>
          <internalNodes>
            0 -1 108 -538977265 -707018535 -737816321 -203429395
            -74917813 1623720104 -1962350337 -3155717</internalNodes>
          <leafValues>
            -6.2433153390884399e-01 5.3756707906723022e-01</leafValues></_>
        <_>
          <internalNodes>
            0 -1 61 -744620033 -718583457 -667905956 937235355
            -217527824 -618913128 -32982136 -1140904002</internalNodes>
          <leafValues>
            -5.5773729085922241e-01 5.3966176509857178e-01</leafValues></_>
        <_>
          <internalNodes>
            0 -1 6 -27525170 -926429009 -1323724534 -1035235282
            -25039801 637567497 -204213982 -136315401</internalNodes>
          <leafValues>
            -5.5443781614303589e-01 4.7557345032691956e-01</leafValues></_>
        <_>
          <internalNodes>
            0 -1 54 -1690229797 -573982244 285217179 -582119146
            -922629205 -863844075 -1992288033 -271078902</internalNodes>
          <leafValues>
            -6.4060974121093750e-01 4.1730132699012756e-01</leafValues></_>
        <_>
          <internalNodes>
            0 -1 30 823132312 1969034453 286333911 1598816412 403177722
            -1148714327 461638073 742129832</internalNodes>
          <leafValues>
            -6.3962227106094360e-01 3.4367814660072327e-01</leafValues></_>
        <_>
          <internalNodes>
            0 -1 115 -83886289 -442805389 1361311880 -1916545003
            1891201232 211413162 -1199115352 -324272129</internalNodes>
          <leafValues>
            -5.0637191534042358e-01 4.1421931982040405e-01</leafValues></_>
        <_>
          <internalNodes>
            0 -1 80 -69365229 -910567041 -783986447 -1715121861
            -1467363261 -370550129 -533377909 -278705406</internalNodes>
          <leafValues>
            -5.4467326402664185e-01 3.7726986408233643e-01</leafValues></_>
        <_>
          <internalNodes>
            0 -1 13 -284170770 -293283058 1111507522 -429960610
            172425625 220430976 -1039433165 -17053489</internalNodes>
          <leafValues>
            -6.6722798347473145e-01 3.3976435661315918e-01</leafValues></_></weakClassifiers></_>
    <!-- stage 11 -->
    <_>
      <maxWeakCount>8</maxWeakCount>
      <stageThreshold>-7.9159361124038696e-01</stageThreshold>
      <weakClassifiers>
        <_>
          <internalNodes>
            0 -1 73 -240914189 -72614977 1890832627 -206314881 -8993
            -67108869 -202116357 -4459781</internalNodes>
          <leafValues>
            -4.1537010669708252e-01 7.1322160959243774e-01</leafValues></_>
        <_>
          <internalNodes>
            0 -1 2 -203428210 -262811517 1227162112 -145792501
            2074598347 -1121736318 2074034247 2144822866</internalNodes>
          <leafValues>
            -5.8670246601104736e-01 4.4248521327972412e-01</leafValues></_>
        <_>
          <internalNodes>
            0 -1 29 -610282785 -674046030 -1792259812 -1799844
            2013997806 973478283 -242556789 -4499217</internalNodes>
          <leafValues>
            -5.5497384071350098e-01 4.1423648595809937e-01</leafValues></_>
        <_>
          <internalNodes>
            0 -1 114 -87101346 1151062063 151949372 1318207685 847987268
            1218674944 -625877511 -55580533</internalNodes>
          <leafValues>
            -6.5810114145278931e-01 3.1572484970092773e-01</leafValues></_>
        <_>
          <internalNodes>
            0 -1 110 701562965 -740515529 1393892223 -544943855
            -1174234117 -1197831663 1563222780 -658442216</internalNodes>
          <leafValues>
            -4.7020623087882996e-01 4.2965602874755859e-01</leafValues></_>
        <_>
          <internalNodes>
            0 -1 118 -615251994 8504271 1074464834 550208482 -930385594
            -712376305 -786106286 -256393578</internalNodes>
          <leafValues>
            -5.8270961046218872e-01 3.0519315600395203e-01</leafValues></_>
        <_>
          <internalNodes>
            0 -1 65 -343162334 -1006057312 1410597299 -217592477
            -266808065 -905822200 -795229729 -824188278</internalNodes>
          <leafValues>
            -6.0271221399307251e-01 3.4323275089263916e-01</leafValues></_>
        <_>
          <internalNodes>
            0 -1 71 919926013 1595129913 -1862086313 -950447845
            -1743722005 -56860652 21558713 747113132</internalNodes>
          <leafValues>
            -5.4912996292114258e-01 3.4547194838523865e-01</leafValues></_></weakClassifiers></_>
    <!-- stage 12 -->
    <_>
      <maxWeakCount>9</maxWeakCount>
      <stageThreshold>-1.1024730205535889e+00</stageThreshold>
      <weakClassifiers>
        <_>
          <internalNodes>
            0 -1 98 -1562662177 680769559 -2147375913 1693625 -913769745
            186216577 -208930069 -72623429</internalNodes>
          <leafValues>
            -6.1467891931533813e-01 4.9200862646102905e-01</leafValues></_>
        <_>
          <internalNodes>
            0 -1 43 -612573271 -605613043 -666535441 999938533 -90508373
            -1117106169 -78319185 749533999</internalNodes>
          <leafValues>
            -5.7748758792877197e-01 3.6039945483207703e-01</leafValues></_>
        <_>
          <internalNodes>
            0 -1 15 -389022842 -133183370 -756813440 -706743278
            -238321525 -895975255 -1849181217 -67119325</internalNodes>
          <leafValues>
            -4.0087449550628662e-01 4.8324528336524963e-01</leafValues></_>
        <_>
          <internalNodes>
            0 -1 60 -675290153 -2228226 -170568868 -524289 1195503098
            2136274774 1163194335 -1084309505</internalNodes>
          <leafValues>
            -2.9939046502113342e-01 5.8086758852005005e-01</leafValues></_>
        <_>
          <internalNodes>
            0 -1 113 -77639940 705384666 -1811884648 730187911
            -917969921 1099483777 -1064768892 -1075207202</internalNodes>
          <leafValues>
            -5.5069416761398315e-01 2.6833763718605042e-01</leafValues></_>
        <_>
          <internalNodes>
            0 -1 119 -157 514256826 -85018012 855240586 -536871242
            1878917119 -276923081 -956696713</internalNodes>
          <leafValues>
            -3.2488757371902466e-01 4.7923594713211060e-01</leafValues></_>
        <_>
          <internalNodes>
            0 -1 39 -213454414 209754274 -1072754367 -20409520
            1124262439 444727298 1225400835 -640343567</internalNodes>
          <leafValues>
            -6.4873480796813965e-01 2.7346423268318176e-01</leafValues></_>
        <_>
          <internalNodes>
            0 -1 78 -1149185634 -703593599 1523801 486628497 -130000199
            -1316908911 827233983 667419252</internalNodes>
          <leafValues>
            -6.1292272806167603e-01 2.1535061299800873e-01</leafValues></_>
        <_>
          <internalNodes>
            0 -1 68 1809169291 1365845513 1545806130 2110781519
            505726113 436242560 1925801679 -108887926</internalNodes>
          <leafValues>
            -4.2656999826431274e-01 3.6615532636642456e-01</leafValues></_></weakClassifiers></_>
    <!-- stage 13 -->
    <_>
      <maxWeakCount>13</maxWeakCount>
      <stageThreshold>-1.1339243650436401e+00</stageThreshold>
      <weakClassifiers>
        <_>
          <internalNodes>
            0 -1 89 -74715141 -146573321 1066368975 1002405367
            -1090781441 -8423425 584056831 1073690619</internalNodes>
          <leafValues>
            -4.5214900374412537e-01 5.3195774555206299e-01</leafValues></_>
        <_>
          <internalNodes>
            0 -1 45 -648726497 1028653457 -724105935 -1663983405
            -671037191 -671055728 -1736193794 -1196892965</internalNodes>
          <leafValues>
            -6.0202908515930176e-01 3.0921125411987305e-01</leafValues></_>
        <_>
          <internalNodes>
            0 -1 101 -706755060 -205073219 939803868 445432405
            -1165491644 -217458168 -1567970600 -219158469</internalNodes>
          <leafValues>
            -5.4590553045272827e-01 2.8308519721031189e-01</leafValues></_>
        <_>
          <internalNodes>
            0 -1 53 -1785448512 -78217189 1560597121 -543405937
            -1624573811 -1932949 -401031238 539650346</internalNodes>
          <leafValues>
            -5.2997529506683350e-01 2.7555435895919800e-01</leafValues></_>
        <_>
          <internalNodes>
            0 -1 62 -443564058 -354012928 320312784 -214546030
            -1851708519 975430816 885740768 -103823138</internalNodes>
          <leafValues>
            -5.1247191429138184e-01 2.5508639216423035e-01</leafValues></_>
        <_>
          <internalNodes>
            0 -1 12 1377200194 1847034034 -532381598 1279410370
            2070243847 1397416065 709099532 -70260053</internalNodes>
          <leafValues>
            -4.5980787277221680e-01 2.9047861695289612e-01</leafValues></_>
        <_>
          <internalNodes>
            0 -1 41 101987408 1553465881 -1995389479 -36699692 956566013
            -92225414 -1708325953 995104816</internalNodes>
          <leafValues>
            -6.6754198074340820e-01 1.6633369028568268e-01</leafValues></_>
        <_>
          <internalNodes>
            0 -1 90 -457315693 -1074003977 -1560498957 -436375593
            -1476523686 1040152567 1331862783 -777529550</internalNodes>
          <leafValues>
            -3.1210935115814209e-01 3.9841762185096741e-01</leafValues></_>
        <_>
          <internalNodes>
            0 -1 121 1912329477 1946337487 17302 584163333 -74485481
            2139129866 -2088175023 -673711274</internalNodes>
          <leafValues>
            -3.9480730891227722e-01 2.8428232669830322e-01</leafValues></_>
        <_>
          <internalNodes>
            0 -1 72 -1966501358 -1936348209 1075091697 1929536897
            -1711253305 -400169784 -834102269 -1415970262</internalNodes>
          <leafValues>
            -6.1398828029632568e-01 1.7380221188068390e-01</leafValues></_>
        <_>
          <internalNodes>
            0 -1 84 1138082522 1413780502 -721381818 1394104341
            -1338703206 -1283456765 -1623865560 -541499171</internalNodes>
          <leafValues>
            -4.5911109447479248e-01 2.6158088445663452e-01</leafValues></_>
        <_>
          <internalNodes>
            0 -1 5 1824768695 -1542716212 1359055124 -53948342
            1771795074 -745926647 -1819551725 -357317887</internalNodes>
          <leafValues>
            -4.2524558305740356e-01 2.7898809313774109e-01</leafValues></_>
        <_>
          <internalNodes>
            0 -1 104 -1898807244 707428593 -595424398 -1671917348
            -1979147775 1496481954 -553534472 -1439792503</internalNodes>
          <leafValues>
            -5.3118187189102173e-01 2.3170314729213715e-01</leafValues></_></weakClassifiers></_>
    <!-- stage 14 -->
    <_>
      <maxWeakCount>15</maxWeakCount>
      <stageThreshold>-1.0583683252334595e+00</stageThreshold>
      <weakClassifiers>
        <_>
          <internalNodes>
            0 -1 107 -120072978 -45514752 1686651640 2018672731
            -1836410168 -651542384 -380912645 -1107328629</internalNodes>
          <leafValues>
            -4.7134187817573547e-01 4.2996886372566223e-01</leafValues></_>
        <_>
          <internalNodes>
            0 -1 57 -306168513 515982608 1535124349 -578773823
            -536853987 -662404928 1216371145 -394100582</internalNodes>
          <leafValues>
            -5.9127515554428101e-01 2.3035264015197754e-01</leafValues></_>
        <_>
          <internalNodes>
            0 -1 14 -1052318357 -12559914 1343756232 -686878329
            167911979 2118140065 1082874265 -3146309</internalNodes>
          <leafValues>
            -4.6558886766433716e-01 2.4857869744300842e-01</leafValues></_>
        <_>
          <internalNodes>
            0 -1 1 -1442135688 -2101067376 1092815337 -841719600
            -803864420 -1702035400 -669275480 -643548912</internalNodes>
          <leafValues>
            -5.0512003898620605e-01 2.1177089214324951e-01</leafValues></_>
        <_>
          <internalNodes>
            0 -1 18 -609748410 -1073734102 -746487550 612946177 8835844
            1107376128 1493242436 -188291150</internalNodes>
          <leafValues>
            -4.4107291102409363e-01 2.4034722149372101e-01</leafValues></_>
        <_>
          <internalNodes>
            0 -1 38 -772216488 -785252335 -452731432 -426194605
            -1423397992 -116391228 1528443376 979945104</internalNodes>
          <leafValues>
            -5.9888690710067749e-01 1.3338147103786469e-01</leafValues></_>
        <_>
          <internalNodes>
            0 -1 79 -1858860000 1436042887 1477018458 -1044365167
            1653325825 -1859600373 1682273308 -361764096</internalNodes>
          <leafValues>
            -6.1188709735870361e-01 1.4736968278884888e-01</leafValues></_>
        <_>
          <internalNodes>
            0 -1 69 -280943872 -1412623226 -717175406 -708470593
            1745892384 -401964924 1082191909 1990779403</internalNodes>
          <leafValues>
            -6.0683435201644897e-01 1.1845097690820694e-01</leafValues></_>
        <_>
          <internalNodes>
            0 -1 81 -880552751 -1135965021 -929974411 869634067
            -2130590935 -1543503872 -1031769896 -1445812205</internalNodes>
          <leafValues>
            -2.9192197322845459e-01 2.9475203156471252e-01</leafValues></_>
        <_>
          <internalNodes>
            0 -1 77 1830228782 -1190854439 -192875952 44236842
            -1189258905 2016084016 -1449141464 -1416525720</internalNodes>
          <leafValues>
            -3.7785223126411438e-01 2.1789684891700745e-01</leafValues></_>
        <_>
          <internalNodes>
            0 -1 95 -1839753451 294319042 1090797702 -108986238
            -1878509093 -1853812592 1082597848 900733428</internalNodes>
          <leafValues>
            -5.5253559350967407e-01 1.6270813345909119e-01</leafValues></_>
        <_>
          <internalNodes>
            0 -1 109 -721231362 -968880112 -2146806468 -2113732585
            151187540 -517332830 690668170 939770778</internalNodes>
          <leafValues>
            -4.0670099854469299e-01 2.1391433477401733e-01</leafValues></_>
        <_>
          <internalNodes>
            0 -1 111 -556607752 805372176 1543557460 -1197353784
            1956819489 -754409334 595806824 -259788494</internalNodes>
          <leafValues>
            -3.7795472145080566e-01 2.1386094391345978e-01</leafValues></_>
        <_>
          <internalNodes>
            0 -1 25 -1022832130 -263159416 1494270292 -1505619966
            16800525 2047070209 -536264562 793187548</internalNodes>
          <leafValues>
            -4.4839870929718018e-01 2.1699647605419159e-01</leafValues></_>
        <_>
          <internalNodes>
            0 -1 96 302039472 -1820327410 1140888896 1426522192
            -620060535 -1491070845 -1181890272 939539304</internalNodes>
          <leafValues>
            -6.4541304111480713e-01 1.3802663981914520e-01</leafValues></_></weakClassifiers></_>
    <!-- stage 15 -->
    <_>
      <maxWeakCount>20</maxWeakCount>
      <stageThreshold>-1.0383224487304688e+00</stageThreshold>
      <weakClassifiers>
        <_>
          <internalNodes>
            0 -1 70 -772182561 -67305730 -147457 1040154623 -151650370
            -755982348 -1083449505 -1077985665</internalNodes>
          <leafValues>
            -3.6019536852836609e-01 4.0974211692810059e-01</leafValues></_>
        <_>
          <internalNodes>
            0 -1 31 -774769325 -762607215 956373001 -754345215 -74951286
            -394186623 -385818735 12674227</internalNodes>
          <leafValues>
            -6.8191057443618774e-01 1.8731385469436646e-01</leafValues></_>
        <_>
          <internalNodes>
            0 -1 49 -715166974 1565851840 -776752336 -573157233 139403
            134742304 2757265 -225916926</internalNodes>
          <leafValues>
            -4.9528408050537109e-01 1.8836219608783722e-01</leafValues></_>
        <_>
          <internalNodes>
            0 -1 0 -1494818937 -1354662367 -335544455 -1610875024
            -270008341 -1342734401 -1611139073 -70275597</internalNodes>
          <leafValues>
            -2.3397074639797211e-01 3.7711414694786072e-01</leafValues></_>
        <_>
          <internalNodes>
            0 -1 117 -191934452 -74202695 269066528 -196783454
            -795721560 -1312620373 -234196822 -856949194</internalNodes>
          <leafValues>
            -3.5582453012466431e-01 2.0694422721862793e-01</leafValues></_>
        <_>
          <internalNodes>
            0 -1 85 -1463407864 457703696 -1870476198 1372782673
            1145711572 -909934574 -1701744508 -871460702</internalNodes>
          <leafValues>
            -3.8194763660430908e-01 1.9831104576587677e-01</leafValues></_>
        <_>
          <internalNodes>
            0 -1 123 -724074556 -1862205303 1342261504 -1673440888
            1611194788 1767440905 -1060919296 1623940817</internalNodes>
          <leafValues>
            -4.1990116238594055e-01 1.5983548760414124e-01</leafValues></_>
        <_>
          <internalNodes>
            0 -1 87 1929443542 445648904 -257322856 604887051
            -2147450666 273223696 -517944220 1426339848</internalNodes>
          <leafValues>
            -4.6008369326591492e-01 1.5840201079845428e-01</leafValues></_>
        <_>
          <internalNodes>
            0 -1 51 470812472 -1743703909 -2147401644 -1878584498
            419645584 -1135644182 160172443 677388600</internalNodes>
          <leafValues>
            -5.8034467697143555e-01 1.2422263622283936e-01</leafValues></_>
        <_>
          <internalNodes>
            0 -1 94 -269534573 -1157300855 -33752391 428866559
            -135402264 -1664709568 -59376051 2070634319</internalNodes>
          <leafValues>
            -2.0956408977508545e-01 3.4008488059043884e-01</leafValues></_>
        <_>
          <internalNodes>
            0 -1 20 -1324598234 1849868928 -719831038 1208906320
            1896444785 -486522366 176185890 -35200350</internalNodes>
          <leafValues>
            -5.0370895862579346e-01 1.3340479135513306e-01</leafValues></_>
        <_>
          <internalNodes>
            0 -1 24 2078535263 -142934276 -420552964 -1224982814
            -563339290 -713555993 2143268079 -83912879</internalNodes>
          <leafValues>
            -2.4017733335494995e-01 2.9827427864074707e-01</leafValues></_>
        <_>
          <internalNodes>
            0 -1 92 -1001280253 -666579903 1527770324 -1740480448
            981600655 1518534656 -58490841 646910467</internalNodes>
          <leafValues>
            -3.5594508051872253e-01 1.9786886870861053e-01</leafValues></_>
        <_>
          <internalNodes>
            0 -1 32 4199088 -1742716792 319787413 -1004807152 973736321
            1905901744 -669340892 -2004583732</internalNodes>
          <leafValues>
            -4.8284178972244263e-01 1.3726828992366791e-01</leafValues></_>
        <_>
          <internalNodes>
            0 -1 116 554107053 726467355 -1853681014 38016130
            -1651822579 1904412800 -1727274234 551965275</internalNodes>
          <leafValues>
            -4.9022597074508667e-01 1.4127171039581299e-01</leafValues></_>
        <_>
          <internalNodes>
            0 -1 64 1797320729 1929347061 1073739646 838835937
            -1115898514 -402751499 -8437761 -1613869599</internalNodes>
          <leafValues>
            -2.1724346280097961e-01 3.1122466921806335e-01</leafValues></_>
        <_>
          <internalNodes>
            0 -1 105 1365200914 -162791021 -1877884591 413401411
            -2138930807 -1904082686 8699938 973496611</internalNodes>
          <leafValues>
            -3.0669707059860229e-01 2.3253636062145233e-01</leafValues></_>
        <_>
          <internalNodes>
            0 -1 97 -131874363 -1837039615 -937912815 -267845598
            -207943632 1493713796 -352296381 -570260563</internalNodes>
          <leafValues>
            -2.4228997528553009e-01 2.8657588362693787e-01</leafValues></_>
        <_>
          <internalNodes>
            0 -1 17 -1321082749 486539395 17404941 -728477675 -645707512
            1015021707 -1861514593 1700741641</internalNodes>
          <leafValues>
            -2.6200804114341736e-01 2.8106451034545898e-01</leafValues></_>
        <_>
          <internalNodes>
            0 -1 19 -68158481 1944909742 2147414392 -68222982 368848831
            -537441289 2088237039 -889258281</internalNodes>
          <leafValues>
            -1.4617729187011719e-01 5.3059303760528564e-01</leafValues></_></weakClassifiers></_></stages>
  <features>
    <_>
      <rect>
        0 0 1 1</rect></_>
    <_>
      <rect>
        0 0 2 1</rect></_>
    <_>
      <rect>
        0 0 2 6</rect></_>
    <_>
      <rect>
        0 0 3 1</rect></_>
    <_>
      <rect>
        0 0 3 3</rect></_>
    <_>
      <rect>
        0 1 1 1</rect></_>
    <_>
      <rect>
        0 3 1 2</rect></_>
    <_>
      <rect>
        0 5 1 2</rect></_>
    <_>
      <rect>
        0 5 1 4</rect></_>
    <_>
      <rect>
        0 5 5 5</rect></_>
    <_>
      <rect>
        0 6 1 2</rect></_>
    <_>
      <rect>
        0 9 2 3</rect></_>
    <_>
      <rect>
        0 10 1 3</rect></_>
    <_>
      <rect>
        0 10 2 2</rect></_>
    <_>
      <rect>
        0 10 2 3</rect></_>
    <_>
      <rect>
        1 0 1 3</rect></_>
    <_>
      <rect>
        1 0 3 3</rect></_>
    <_>
      <rect>
        1 1 4 1</rect></_>
    <_>
      <rect>
        1 3 1 3</rect></_>
    <_>
      <rect>
        1 4 1 2</rect></_>
    <_>
      <rect>
        1 5 1 2</rect></_>
    <_>
      <rect>
        1 5 5 3</rect></_>
    <_>
      <rect>
        1 7 3 2</rect></_>
    <_>
      <rect>
        1 10 2 3</rect></_>
    <_>
      <rect>
        1 13 1 2</rect></_>
    <_>
      <rect>
        1 14 1 2</rect></_>
    <_>
      <rect>
        2 1 3 3</rect></_>
    <_>
      <rect>
        2 2 5 4</rect></_>
    <_>
      <rect>
        2 5 3 2</rect></_>
    <_>
      <rect>
        2 10 2 3</rect></_>
    <_>
      <rect>
        2 17 5 1</rect></_>
    <_>
      <rect>
        3 0 2 3</rect></_>
    <_>
      <rect>
        3 0 4 1</rect></_>
    <_>
      <rect>
        3 0 4 2</rect></_>
    <_>
      <rect>
        3 1 5 2</rect></_>
    <_>
      <rect>
        3 8 2 1</rect></_>
    <_>
      <rect>
        3 10 2 1</rect></_>
    <_>
      <rect>
        3 11 1 1</rect></_>
    <_>
      <rect>
        3 11 5 3</rect></_>
    <_>
      <rect>
        3 12 1 1</rect></_>
    <_>
      <rect>
        3 15 4 1</rect></_>
    <_>
      <rect>
        3 16 2 1</rect></_>
    <_>
      <rect>
        4 0 2 1</rect></_>
    <_>
      <rect>
        4 1 5 2</rect></_>
    <_>
      <rect>
        4 4 4 2</rect></_>
    <_>
      <rect>
        4 4 5 3</rect></_>
    <_>
      <rect>
        4 5 1 3</rect></_>
    <_>
      <rect>
        4 7 2 1</rect></_>
    <_>
      <rect>
        4 10 1 1</rect></_>
    <_>
      <rect>
        4 10 2 1</rect></_>
    <_>
      <rect>
        4 15 4 1</rect></_>
    <_>
      <rect>
        4 16 3 1</rect></_>
    <_>
      <rect>
        4 16 4 1</rect></_>
    <_>
      <rect>
        5 0 5 2</rect></_>
    <_>
      <rect>
        5 1 3 4</rect></_>
    <_>
      <rect>
        5 2 4 4</rect></_>
    <_>
      <rect>
        5 4 2 2</rect></_>
    <_>
      <rect>
        5 4 4 3</rect></_>
    <_>
      <rect>
        5 4 5 3</rect></_>
    <_>
      <rect>
        5 5 5 5</rect></_>
    <_>
      <rect>
        5 10 2 2</rect></_>
    <_>
      <rect>
        5 10 2 3</rect></_>
    <_>
      <rect>
        5 11 1 1</rect></_>
    <_>
      <rect>
        5 12 3 2</rect></_>
    <_>
      <rect>
        5 17 3 1</rect></_>
    <_>
      <rect>
        6 3 2 2</rect></_>
    <_>
      <rect>
        6 5 1 1</rect></_>
    <_>
      <rect>
        6 5 3 5</rect></_>
    <_>
      <rect>
        6 8 2 2</rect></_>
    <_>
      <rect>
        6 9 1 1</rect></_>
    <_>
      <rect>
        6 9 3 3</rect></_>
    <_>
      <rect>
        6 14 3 1</rect></_>
    <_>
      <rect>
        7 0 2 3</rect></_>
    <_>
      <rect>
        7 1 2 3</rect></_>
    <_>
      <rect>
        7 2 2 2</rect></_>
    <_>
      <rect>
        7 2 2 3</rect></_>
    <_>
      <rect>
        7 9 1 1</rect></_>
    <_>
      <rect>
        7 11 3 1</rect></_>
    <_>
      <rect>
        7 14 2 1</rect></_>
    <_>
      <rect>
        8 0 2 2</rect></_>
    <_>
      <rect>
        8 0 2 3</rect></_>
    <_>
      <rect>
        8 4 1 2</rect></_>
    <_>
      <rect>
        8 5 4 5</rect></_>
    <_>
      <rect>
        8 6 4 2</rect></_>
    <_>
      <rect>
        8 10 2 2</rect></_>
    <_>
      <rect>
        8 11 1 1</rect></_>
    <_>
      <rect>
        8 11 2 2</rect></_>
    <_>
      <rect>
        8 12 3 1</rect></_>
    <_>
      <rect>
        9 1 3 3</rect></_>
    <_>
      <rect>
        9 3 1 4</rect></_>
    <_>
      <rect>
        9 4 1 2</rect></_>
    <_>
      <rect>
        9 5 3 2</rect></_>
    <_>
      <rect>
        9 6 1 1</rect></_>
    <_>
      <rect>
        9 8 3 3</rect></_>
    <_>
      <rect>
        9 12 2 1</rect></_>
    <_>
      <rect>
        9 13 1 2</rect></_>
    <_>
      <rect>
        9 14 3 1</rect></_>
    <_>
      <rect>
        10 4 1 2</rect></_>
    <_>
      <rect>
        10 9 1 1</rect></_>
    <_>
      <rect>
        10 10 2 1</rect></_>
    <_>
      <rect>
        11 0 3 3</rect></_>
    <_>
      <rect>
        11 5 1 1</rect></_>
    <_>
      <rect>
        11 8 2 1</rect></_>
    <_>
      <rect>
        11 9 2 1</rect></_>
    <_>
      <rect>
        11 10 1 1</rect></_>
    <_>
      <rect>
        11 10 1 2</rect></_>
    <_>
      <rect>
        11 10 3 1</rect></_>
    <_>
      <rect>
        11 11 2 1</rect></_>
    <_>
      <rect>
        12 8 2 1</rect></_>
    <_>
      <rect>
        12 12 2 1</rect></_>
    <_>
      <rect>
        13 0 2 1</rect></_>
    <_>
      <rect>
        13 3 2 1</rect></_>
    <_>
      <rect>
        13 10 2 3</rect></_>
    <_>
      <rect>
        14 5 1 3</rect></_>
    <_>
      <rect>
        14 11 1 1</rect></_>
    <_>
      <rect>
        14 12 2 2</rect></_>
    <_>
      <rect>
        15 4 1 1</rect></_>
    <_>
      <rect>
        17 0 1 2</rect></_>
    <_>
      <rect>
        17 4 1 2</rect></_>
    <_>
      <rect>
        17 4 1 5</rect></_>
    <_>
      <rect>
        17 5 1 3</rect></_>
    <_>
      <rect>
        17 11 1 2</rect></_>
    <_>
      <rect>
        17 11 1 3</rect></_>
    <_>
      <rect>
        17 13 1 2</rect></_></features></cascade>
</opencv_storage>
